<?xml version="1.0"?>
<opencv_storage>
<!-- Created using Computer Vision System Toolbox(tm) for MATLAB(R) -->
<!-- Version 8.3.0.532 (R2014a) -->
<!-- Compatible with OpenCV 2.4 -->
<cascade>
  <stageType>BOOST</stageType>
  <featureType>HOG</featureType>
  <height>85</height>
  <width>32</width>
  <stageParams>
    <boostType>GAB</boostType>
    <minHitRate>9.9500000476837158e-01</minHitRate>
    <maxFalseAlarm>8.9999997615814209e-01</maxFalseAlarm>
    <weightTrimRate>9.4999999999999996e-01</weightTrimRate>
    <maxDepth>1</maxDepth>
    <maxWeakCount>100</maxWeakCount></stageParams>
  <featureParams>
    <maxCatCount>0</maxCatCount>
    <featSize>36</featSize></featureParams>
  <stageNum>1</stageNum>
  <stages>
    <!-- stage 0 -->
    <_>
      <maxWeakCount>2</maxWeakCount>
      <stageThreshold>-6.2327686697244644e-02</stageThreshold>
      <weakClassifiers>
        <_>
          <internalNodes>
            0 -1 0 5.0729155540466309e-02</internalNodes>
          <leafValues>
            -8.7755101919174194e-01 1.</leafValues></_>
        <_>
          <internalNodes>
            0 -1 1 3.0554126948118210e-02</internalNodes>
          <leafValues>
            8.1522333621978760e-01 -9.6925354003906250e-01</leafValues></_></weakClassifiers></_></stages>
  <features>
    <_>
      <rect>
        4 36 8 16 7</rect></_>
    <_>
      <rect>
        0 4 16 8 31</rect></_></features></cascade>
</opencv_storage>
