<?xml version="1.0"?>
<opencv_storage>
<!-- Created using Computer Vision System Toolbox(tm) for MATLAB(R) -->
<!-- Version 8.3.0.532 (R2014a) -->
<!-- Compatible with OpenCV 2.4 -->
<cascade>
  <stageType>BOOST</stageType>
  <featureType>HOG</featureType>
  <height>85</height>
  <width>32</width>
  <stageParams>
    <boostType>GAB</boostType>
    <minHitRate>9.9500000476837158e-01</minHitRate>
    <maxFalseAlarm>2.0000000298023224e-01</maxFalseAlarm>
    <weightTrimRate>9.4999999999999996e-01</weightTrimRate>
    <maxDepth>1</maxDepth>
    <maxWeakCount>100</maxWeakCount></stageParams>
  <featureParams>
    <maxCatCount>0</maxCatCount>
    <featSize>36</featSize></featureParams>
  <stageNum>10</stageNum>
  <stages>
    <!-- stage 0 -->
    <_>
      <maxWeakCount>2</maxWeakCount>
      <stageThreshold>-6.2327686697244644e-02</stageThreshold>
      <weakClassifiers>
        <_>
          <internalNodes>
            0 -1 21 5.0729155540466309e-02</internalNodes>
          <leafValues>
            -8.7755101919174194e-01 1.</leafValues></_>
        <_>
          <internalNodes>
            0 -1 32 3.0554126948118210e-02</internalNodes>
          <leafValues>
            8.1522333621978760e-01 -9.6925354003906250e-01</leafValues></_></weakClassifiers></_>
    <!-- stage 1 -->
    <_>
      <maxWeakCount>4</maxWeakCount>
      <stageThreshold>-2.6660752296447754e-01</stageThreshold>
      <weakClassifiers>
        <_>
          <internalNodes>
            0 -1 1 5.6557051837444305e-02</internalNodes>
          <leafValues>
            -8.5641026496887207e-01 9.2592591047286987e-01</leafValues></_>
        <_>
          <internalNodes>
            0 -1 42 2.1600779145956039e-02</internalNodes>
          <leafValues>
            -9.8786652088165283e-01 5.2929908037185669e-01</leafValues></_>
        <_>
          <internalNodes>
            0 -1 8 4.3134197592735291e-02</internalNodes>
          <leafValues>
            -7.3457717895507813e-01 8.2623946666717529e-01</leafValues></_>
        <_>
          <internalNodes>
            0 -1 38 3.5842314362525940e-02</internalNodes>
          <leafValues>
            -7.0153027772903442e-01 7.9508084058761597e-01</leafValues></_></weakClassifiers></_>
    <!-- stage 2 -->
    <_>
      <maxWeakCount>5</maxWeakCount>
      <stageThreshold>-1.0349568128585815e+00</stageThreshold>
      <weakClassifiers>
        <_>
          <internalNodes>
            0 -1 2 1.1813969910144806e-01</internalNodes>
          <leafValues>
            -7.4757283926010132e-01 8.8571429252624512e-01</leafValues></_>
        <_>
          <internalNodes>
            0 -1 10 2.5857511907815933e-02</internalNodes>
          <leafValues>
            -7.2148090600967407e-01 6.4976370334625244e-01</leafValues></_>
        <_>
          <internalNodes>
            0 -1 43 1.3942860066890717e-02</internalNodes>
          <leafValues>
            5.0462174415588379e-01 -8.6352044343948364e-01</leafValues></_>
        <_>
          <internalNodes>
            0 -1 20 6.0005318373441696e-02</internalNodes>
          <leafValues>
            -6.1793178319931030e-01 7.6567953824996948e-01</leafValues></_>
        <_>
          <internalNodes>
            0 -1 30 1.8496461212635040e-02</internalNodes>
          <leafValues>
            -9.2089140415191650e-01 5.4430460929870605e-01</leafValues></_></weakClassifiers></_>
    <!-- stage 3 -->
    <_>
      <maxWeakCount>5</maxWeakCount>
      <stageThreshold>-8.3563214540481567e-01</stageThreshold>
      <weakClassifiers>
        <_>
          <internalNodes>
            0 -1 13 7.7400676906108856e-02</internalNodes>
          <leafValues>
            -7.0892018079757690e-01 9.3650794029235840e-01</leafValues></_>
        <_>
          <internalNodes>
            0 -1 31 1.9886346533894539e-02</internalNodes>
          <leafValues>
            -9.0940546989440918e-01 5.1119822263717651e-01</leafValues></_>
        <_>
          <internalNodes>
            0 -1 26 4.6606656163930893e-02</internalNodes>
          <leafValues>
            -7.2076129913330078e-01 5.9355986118316650e-01</leafValues></_>
        <_>
          <internalNodes>
            0 -1 16 5.1315777003765106e-02</internalNodes>
          <leafValues>
            -5.2178215980529785e-01 9.3283325433731079e-01</leafValues></_>
        <_>
          <internalNodes>
            0 -1 24 1.7202205955982208e-02</internalNodes>
          <leafValues>
            -8.8356822729110718e-01 6.0463327169418335e-01</leafValues></_></weakClassifiers></_>
    <!-- stage 4 -->
    <_>
      <maxWeakCount>3</maxWeakCount>
      <stageThreshold>-6.5626996755599976e-01</stageThreshold>
      <weakClassifiers>
        <_>
          <internalNodes>
            0 -1 44 5.5756051093339920e-02</internalNodes>
          <leafValues>
            -7.6470589637756348e-01 8.8888889551162720e-01</leafValues></_>
        <_>
          <internalNodes>
            0 -1 33 1.2856172397732735e-02</internalNodes>
          <leafValues>
            7.7741402387619019e-01 -7.4195265769958496e-01</leafValues></_>
        <_>
          <internalNodes>
            0 -1 28 8.3426507189869881e-03</internalNodes>
          <leafValues>
            8.5038858652114868e-01 -6.4693737030029297e-01</leafValues></_></weakClassifiers></_>
    <!-- stage 5 -->
    <_>
      <maxWeakCount>6</maxWeakCount>
      <stageThreshold>-6.3802230358123779e-01</stageThreshold>
      <weakClassifiers>
        <_>
          <internalNodes>
            0 -1 11 5.1065079867839813e-02</internalNodes>
          <leafValues>
            -8.8571429252624512e-01 6.2376236915588379e-01</leafValues></_>
        <_>
          <internalNodes>
            0 -1 18 1.5078257769346237e-02</internalNodes>
          <leafValues>
            6.6300451755523682e-01 -7.5081562995910645e-01</leafValues></_>
        <_>
          <internalNodes>
            0 -1 17 1.2570880353450775e-02</internalNodes>
          <leafValues>
            4.9366870522499084e-01 -8.0503511428833008e-01</leafValues></_>
        <_>
          <internalNodes>
            0 -1 34 4.4857010245323181e-02</internalNodes>
          <leafValues>
            -6.6938495635986328e-01 6.5649396181106567e-01</leafValues></_>
        <_>
          <internalNodes>
            0 -1 14 4.3963950127363205e-02</internalNodes>
          <leafValues>
            -7.0512592792510986e-01 6.1470562219619751e-01</leafValues></_>
        <_>
          <internalNodes>
            0 -1 7 2.7148660272359848e-02</internalNodes>
          <leafValues>
            -8.1492221355438232e-01 5.5951821804046631e-01</leafValues></_></weakClassifiers></_>
    <!-- stage 6 -->
    <_>
      <maxWeakCount>5</maxWeakCount>
      <stageThreshold>6.4689733088016510e-02</stageThreshold>
      <weakClassifiers>
        <_>
          <internalNodes>
            0 -1 12 1.6687375307083130e-01</internalNodes>
          <leafValues>
            -6.7123287916183472e-01 9.6491229534149170e-01</leafValues></_>
        <_>
          <internalNodes>
            0 -1 37 5.1388569176197052e-02</internalNodes>
          <leafValues>
            -4.9542406201362610e-01 7.9231303930282593e-01</leafValues></_>
        <_>
          <internalNodes>
            0 -1 25 1.9236452877521515e-02</internalNodes>
          <leafValues>
            -1. 3.7107080221176147e-01</leafValues></_>
        <_>
          <internalNodes>
            0 -1 36 1.0982470586895943e-02</internalNodes>
          <leafValues>
            3.8541224598884583e-01 -8.1031930446624756e-01</leafValues></_>
        <_>
          <internalNodes>
            0 -1 6 3.8811169564723969e-02</internalNodes>
          <leafValues>
            -7.3763799667358398e-01 4.7486361861228943e-01</leafValues></_></weakClassifiers></_>
    <!-- stage 7 -->
    <_>
      <maxWeakCount>5</maxWeakCount>
      <stageThreshold>-2.2139883041381836e-01</stageThreshold>
      <weakClassifiers>
        <_>
          <internalNodes>
            0 -1 29 7.3269411921501160e-02</internalNodes>
          <leafValues>
            -6.6363638639450073e-01 9.6428573131561279e-01</leafValues></_>
        <_>
          <internalNodes>
            0 -1 19 3.0488584190607071e-02</internalNodes>
          <leafValues>
            3.3075958490371704e-01 -9.0030026435852051e-01</leafValues></_>
        <_>
          <internalNodes>
            0 -1 0 5.0099633634090424e-02</internalNodes>
          <leafValues>
            -5.3049188852310181e-01 6.1910808086395264e-01</leafValues></_>
        <_>
          <internalNodes>
            0 -1 9 3.8035869598388672e-02</internalNodes>
          <leafValues>
            -7.4544394016265869e-01 4.5631673932075500e-01</leafValues></_>
        <_>
          <internalNodes>
            0 -1 23 1.5667710453271866e-02</internalNodes>
          <leafValues>
            -9.6394687891006470e-01 2.9546990990638733e-01</leafValues></_></weakClassifiers></_>
    <!-- stage 8 -->
    <_>
      <maxWeakCount>5</maxWeakCount>
      <stageThreshold>-4.3681719899177551e-01</stageThreshold>
      <weakClassifiers>
        <_>
          <internalNodes>
            0 -1 4 1.0860330611467361e-01</internalNodes>
          <leafValues>
            -6.3470321893692017e-01 8.2456141710281372e-01</leafValues></_>
        <_>
          <internalNodes>
            0 -1 3 2.9680822044610977e-03</internalNodes>
          <leafValues>
            -9.2085301876068115e-01 4.1765448451042175e-01</leafValues></_>
        <_>
          <internalNodes>
            0 -1 27 2.1866377443075180e-02</internalNodes>
          <leafValues>
            -9.6203941106796265e-01 2.4870476126670837e-01</leafValues></_>
        <_>
          <internalNodes>
            0 -1 45 2.7313299477100372e-02</internalNodes>
          <leafValues>
            4.1737869381904602e-01 -7.4530756473541260e-01</leafValues></_>
        <_>
          <internalNodes>
            0 -1 5 3.0718661844730377e-02</internalNodes>
          <leafValues>
            -6.9405537843704224e-01 4.5265555381774902e-01</leafValues></_></weakClassifiers></_>
    <!-- stage 9 -->
    <_>
      <maxWeakCount>6</maxWeakCount>
      <stageThreshold>-3.8146829605102539e-01</stageThreshold>
      <weakClassifiers>
        <_>
          <internalNodes>
            0 -1 15 5.6482411921024323e-02</internalNodes>
          <leafValues>
            -5.1724135875701904e-01 8.3870965242385864e-01</leafValues></_>
        <_>
          <internalNodes>
            0 -1 40 3.4265398979187012e-02</internalNodes>
          <leafValues>
            -8.3892357349395752e-01 4.0231412649154663e-01</leafValues></_>
        <_>
          <internalNodes>
            0 -1 39 3.4104663878679276e-02</internalNodes>
          <leafValues>
            -7.5006610155105591e-01 4.0751001238822937e-01</leafValues></_>
        <_>
          <internalNodes>
            0 -1 22 1.1759953573346138e-02</internalNodes>
          <leafValues>
            -7.5465625524520874e-01 3.2695993781089783e-01</leafValues></_>
        <_>
          <internalNodes>
            0 -1 35 5.4405834525823593e-02</internalNodes>
          <leafValues>
            -4.2374429106712341e-01 6.9104295969009399e-01</leafValues></_>
        <_>
          <internalNodes>
            0 -1 41 2.2872928529977798e-02</internalNodes>
          <leafValues>
            6.3079994916915894e-01 -5.1305186748504639e-01</leafValues></_></weakClassifiers></_></stages>
  <features>
    <_>
      <rect>
        0 0 8 8 12</rect></_>
    <_>
      <rect>
        0 52 8 8 15</rect></_>
    <_>
      <rect>
        4 44 8 8 7</rect></_>
    <_>
      <rect>
        4 48 8 8 12</rect></_>
    <_>
      <rect>
        4 52 8 8 35</rect></_>
    <_>
      <rect>
        4 60 8 8 34</rect></_>
    <_>
      <rect>
        8 0 8 8 13</rect></_>
    <_>
      <rect>
        8 4 8 8 12</rect></_>
    <_>
      <rect>
        8 44 8 8 25</rect></_>
    <_>
      <rect>
        8 52 8 8 6</rect></_>
    <_>
      <rect>
        12 4 8 8 11</rect></_>
    <_>
      <rect>
        12 28 8 8 17</rect></_>
    <_>
      <rect>
        12 36 8 8 27</rect></_>
    <_>
      <rect>
        12 40 8 8 9</rect></_>
    <_>
      <rect>
        16 20 8 8 17</rect></_>
    <_>
      <rect>
        16 44 8 8 19</rect></_>
    <_>
      <rect>
        16 44 8 8 32</rect></_>
    <_>
      <rect>
        0 28 8 16 1</rect></_>
    <_>
      <rect>
        0 48 8 16 4</rect></_>
    <_>
      <rect>
        4 12 8 16 35</rect></_>
    <_>
      <rect>
        4 28 8 16 7</rect></_>
    <_>
      <rect>
        4 36 8 16 7</rect></_>
    <_>
      <rect>
        4 52 8 16 21</rect></_>
    <_>
      <rect>
        4 52 8 16 27</rect></_>
    <_>
      <rect>
        4 52 8 16 30</rect></_>
    <_>
      <rect>
        8 16 8 16 16</rect></_>
    <_>
      <rect>
        12 20 8 16 17</rect></_>
    <_>
      <rect>
        12 52 8 16 23</rect></_>
    <_>
      <rect>
        16 32 8 16 30</rect></_>
    <_>
      <rect>
        16 52 8 16 0</rect></_>
    <_>
      <rect>
        0 0 16 8 2</rect></_>
    <_>
      <rect>
        0 0 16 8 14</rect></_>
    <_>
      <rect>
        0 4 16 8 31</rect></_>
    <_>
      <rect>
        0 8 16 8 20</rect></_>
    <_>
      <rect>
        0 12 16 8 8</rect></_>
    <_>
      <rect>
        0 44 16 8 33</rect></_>
    <_>
      <rect>
        0 48 16 8 3</rect></_>
    <_>
      <rect>
        0 60 16 8 32</rect></_>
    <_>
      <rect>
        0 60 16 8 33</rect></_>
    <_>
      <rect>
        0 4 16 16 8</rect></_>
    <_>
      <rect>
        0 12 16 16 17</rect></_>
    <_>
      <rect>
        0 28 16 16 6</rect></_>
    <_>
      <rect>
        0 52 16 16 24</rect></_>
    <_>
      <rect>
        0 0 16 32 19</rect></_>
    <_>
      <rect>
        0 8 16 32 17</rect></_>
    <_>
      <rect>
        0 16 16 32 16</rect></_></features></cascade>
</opencv_storage>
